<?xml version="1.0"?>
<MethodSetup Method="MLP::MLP">
  <GeneralInfo>
    <Info name="TMVA Release" value="4.2.1 [262657]"/>
    <Info name="ROOT Release" value="6.06/06 [394758]"/>
    <Info name="Creator" value="dmriser"/>
    <Info name="Date" value="Mon Dec 12 13:16:19 2016"/>
    <Info name="Host" value="Darwin macitois17.cern.ch 15.5.0 Darwin Kernel Version 15.5.0: Tue Apr 19 18:36:36 PDT 2016; root:xnu-3248.50.21~8/RELEASE_X86_64 x86_64"/>
    <Info name="Dir" value="/Users/dmriser/Documents/garage/cpp/TMVATests/ElasticSubtractionTest"/>
    <Info name="Training events" value="16382"/>
    <Info name="TrainingTime" value="5.18323750e+01"/>
    <Info name="AnalysisType" value="Classification"/>
  </GeneralInfo>
  <Options>
    <Option name="NCycles" modified="Yes">600</Option>
    <Option name="HiddenLayers" modified="Yes">N+5</Option>
    <Option name="NeuronType" modified="Yes">tanh</Option>
    <Option name="RandomSeed" modified="No">1</Option>
    <Option name="EstimatorType" modified="No">CE</Option>
    <Option name="NeuronInputType" modified="No">sum</Option>
    <Option name="V" modified="Yes">False</Option>
    <Option name="VerbosityLevel" modified="No">Default</Option>
    <Option name="VarTransform" modified="Yes">N</Option>
    <Option name="H" modified="Yes">True</Option>
    <Option name="CreateMVAPdfs" modified="No">False</Option>
    <Option name="IgnoreNegWeightsInTraining" modified="No">False</Option>
    <Option name="TrainingMethod" modified="No">BP</Option>
    <Option name="LearningRate" modified="No">2.000000e-02</Option>
    <Option name="DecayRate" modified="No">1.000000e-02</Option>
    <Option name="TestRate" modified="Yes">5</Option>
    <Option name="EpochMonitoring" modified="No">False</Option>
    <Option name="Sampling" modified="No">1.000000e+00</Option>
    <Option name="SamplingEpoch" modified="No">1.000000e+00</Option>
    <Option name="SamplingImportance" modified="No">1.000000e+00</Option>
    <Option name="SamplingTraining" modified="No">True</Option>
    <Option name="SamplingTesting" modified="No">False</Option>
    <Option name="ResetStep" modified="No">50</Option>
    <Option name="Tau" modified="No">3.000000e+00</Option>
    <Option name="BPMode" modified="No">sequential</Option>
    <Option name="BatchSize" modified="No">-1</Option>
    <Option name="ConvergenceImprove" modified="No">1.000000e-30</Option>
    <Option name="ConvergenceTests" modified="No">-1</Option>
    <Option name="UseRegulator" modified="No">False</Option>
    <Option name="UpdateLimit" modified="No">10000</Option>
    <Option name="CalculateErrors" modified="No">False</Option>
    <Option name="WeightRange" modified="No">1.000000e+00</Option>
  </Options>
  <Variables NVar="5">
    <Variable VarIndex="0" Expression="electron.Theta()" Label="electron.Theta()" Title="theta" Unit="radians" Internal="electron.Theta__" Type="F" Min="1.94848776e-01" Max="9.26994503e-01"/>
    <Variable VarIndex="1" Expression="w" Label="w" Title="w" Unit="GeV/c^2" Internal="w" Type="F" Min="3.55667442e-01" Max="3.08123207e+00"/>
    <Variable VarIndex="2" Expression="qq" Label="qq" Title="qq" Unit="GeV^2/c^2" Internal="qq" Type="F" Min="7.27856815e-01" Max="6.49382257e+00"/>
    <Variable VarIndex="3" Expression="x" Label="x" Title="x" Unit="GeV^2/c^2" Internal="x" Type="F" Min="7.81544521e-02" Max="1.33652794e+00"/>
    <Variable VarIndex="4" Expression="y" Label="y" Title="y" Unit="GeV^2/c^2" Internal="y" Type="F" Min="1.02748409e-01" Max="9.09023166e-01"/>
  </Variables>
  <Spectators NSpec="0"/>
  <Classes NClass="2">
    <Class Name="Signal" Index="0"/>
    <Class Name="Background" Index="1"/>
  </Classes>
  <Transformations NTransformations="1">
    <Transform Name="Normalize">
      <Selection>
        <Input NInputs="5">
          <Input Type="Variable" Label="electron.Theta()" Expression="electron.Theta()"/>
          <Input Type="Variable" Label="w" Expression="w"/>
          <Input Type="Variable" Label="qq" Expression="qq"/>
          <Input Type="Variable" Label="x" Expression="x"/>
          <Input Type="Variable" Label="y" Expression="y"/>
        </Input>
        <Output NOutputs="5">
          <Output Type="Variable" Label="electron.Theta()" Expression="electron.Theta()"/>
          <Output Type="Variable" Label="w" Expression="w"/>
          <Output Type="Variable" Label="qq" Expression="qq"/>
          <Output Type="Variable" Label="x" Expression="x"/>
          <Output Type="Variable" Label="y" Expression="y"/>
        </Output>
      </Selection>
      <Class ClassIndex="0">
        <Ranges>
          <Range Index="0" Min="1.9484877586364746e-01" Max="9.2699450254440308e-01"/>
          <Range Index="1" Min="3.5566744208335876e-01" Max="3.0336835384368896e+00"/>
          <Range Index="2" Min="7.8986608982086182e-01" Max="4.9327888488769531e+00"/>
          <Range Index="3" Min="1.0026086121797562e-01" Max="1.3365279436111450e+00"/>
          <Range Index="4" Min="1.0274840891361237e-01" Max="9.0849584341049194e-01"/>
        </Ranges>
      </Class>
      <Class ClassIndex="1">
        <Ranges>
          <Range Index="0" Min="3.0979570746421814e-01" Max="9.1814970970153809e-01"/>
          <Range Index="1" Min="4.1377049684524536e-01" Max="3.0812320709228516e+00"/>
          <Range Index="2" Min="7.2785681486129761e-01" Max="6.4938225746154785e+00"/>
          <Range Index="3" Min="7.8154452145099640e-02" Max="1.2157833576202393e+00"/>
          <Range Index="4" Min="2.1734370291233063e-01" Max="9.0902316570281982e-01"/>
        </Ranges>
      </Class>
      <Class ClassIndex="2">
        <Ranges>
          <Range Index="0" Min="1.9484877586364746e-01" Max="9.2699450254440308e-01"/>
          <Range Index="1" Min="3.5566744208335876e-01" Max="3.0812320709228516e+00"/>
          <Range Index="2" Min="7.2785681486129761e-01" Max="6.4938225746154785e+00"/>
          <Range Index="3" Min="7.8154452145099640e-02" Max="1.3365279436111450e+00"/>
          <Range Index="4" Min="1.0274840891361237e-01" Max="9.0902316570281982e-01"/>
        </Ranges>
      </Class>
    </Transform>
  </Transformations>
  <MVAPdfs/>
  <Weights>
    <Layout NLayers="3">
      <Layer Index="0" NNeurons="6">
        <Neuron NSynapses="10">
          -4.4647916821405159e-01 1.2644773047912263e+00 4.7792268786535952e-01 2.2202849218743745e+00 -8.9999028327578436e+00 -3.6492142050183367e+00 -3.6693546076321004e-01 5.4191790868623768e-01 -3.5111593687153473e+00 -4.8786428550865529e-01 
        </Neuron>
        <Neuron NSynapses="10">
          -1.2266813402786778e+00 -2.9097606797125064e-01 1.2496569795582464e+00 4.2535737801721724e-01 9.5176334408512350e-02 9.6109733371446127e-01 1.1855586882556588e+00 4.5589493696268368e+00 1.1542425048893477e+00 7.5107951114014959e-01 
        </Neuron>
        <Neuron NSynapses="10">
          -8.3509160488677314e-01 -1.4197380456232538e+00 -3.0469614516092731e+00 5.9602709876143345e-01 -8.9261471986649816e+00 -3.1157881383098620e+00 -4.9336894733744618e-01 -6.4148867835983641e+00 7.7531381751086634e-02 -8.8963871124044802e-01 
        </Neuron>
        <Neuron NSynapses="10">
          9.1984601975059743e-01 1.2974289206313963e+00 -1.5773968714380473e+00 -1.4702883138313183e+00 -1.4893592437514358e+00 1.7534610033981540e-01 -2.5671178581550045e+00 8.5173497423265765e-01 -4.2922068996559171e+00 2.3919981076375705e+00 
        </Neuron>
        <Neuron NSynapses="10">
          1.6674600321133957e+00 4.2554376465329935e-01 3.8273607472312370e+00 2.2713924580558729e+00 -5.5903080344170402e+00 -2.1305520997335536e+00 1.9839171799377098e+00 2.9310326709175256e+00 2.9273859994182798e+00 1.0010502001704193e+00 
        </Neuron>
        <Neuron NSynapses="10">
          -3.9557711746218305e-02 2.1735072660088534e-01 -6.2222448768311560e+00 2.0623203930241636e+00 -1.4627024791815129e+01 -4.7780630800100408e+00 -2.6474851060149769e+00 -1.0661713184206382e+01 1.6733843511284323e+00 1.7854060280277709e-01 
        </Neuron>
      </Layer>
      <Layer Index="1" NNeurons="11">
        <Neuron NSynapses="1">
          1.2731526095939852e-02 
        </Neuron>
        <Neuron NSynapses="1">
          -4.5412491984381714e-01 
        </Neuron>
        <Neuron NSynapses="1">
          -9.4522273849403593e-01 
        </Neuron>
        <Neuron NSynapses="1">
          7.4449637382372691e-01 
        </Neuron>
        <Neuron NSynapses="1">
          6.6672694716865717e+00 
        </Neuron>
        <Neuron NSynapses="1">
          -9.6834943363715653e-01 
        </Neuron>
        <Neuron NSynapses="1">
          -7.9900093051321619e-01 
        </Neuron>
        <Neuron NSynapses="1">
          -2.7426434348423707e+00 
        </Neuron>
        <Neuron NSynapses="1">
          3.3872941675425530e+00 
        </Neuron>
        <Neuron NSynapses="1">
          -4.7609616425712965e-02 
        </Neuron>
        <Neuron NSynapses="1">
          -5.2046291406727840e-01 
        </Neuron>
      </Layer>
      <Layer Index="2" NNeurons="1">
        <Neuron NSynapses="0"/>
      </Layer>
    </Layout>
  </Weights>
</MethodSetup>
